<?xml version="1.0"?>
<opencv_storage>
<haar_carplate type_id="opencv-haar-classifier">
  <size>
    76 20</size>
  <stages>
    <_>
      <trees>
        <_>
          <_>
            <feature>
              <rects>
                <_>
                  27 1 15 19 -1.</_>
                <_>
                  32 1 5 19 3.</_></rects>
              <tilted>0</tilted></feature>
            <threshold>0.0474418997764587</threshold>
            <left_val>-0.9522722959518433</left_val>
            <right_val>0.9259492158889771</right_val></_></_>
        <_>
          <_>
            <feature>
              <rects>
                <_>
                  34 1 8 13 -1.</_>
                <_>
                  38 1 4 13 2.</_></rects>
              <tilted>0</tilted></feature>
            <threshold>-0.0195000004023314</threshold>
            <left_val>0.9039462804794312</left_val>
            <right_val>-0.8817502856254578</right_val></_></_></trees>
      <stage_threshold>-0.0483260191977024</stage_threshold>
      <parent>-1</parent>
      <next>-1</next></_>
    <_>
      <trees>
        <_>
          <_>
            <feature>
              <rects>
                <_>
                  9 0 6 6 -1.</_>
                <_>
                  9 3 6 3 2.</_></rects>
              <tilted>0</tilted></feature>
            <threshold>-2.5539270136505365e-003</threshold>
            <left_val>0.7546811103820801</left_val>
            <right_val>-0.9469448924064636</right_val></_></_>
        <_>
          <_>
            <feature>
              <rects>
                <_>
                  69 17 1 2 -1.</_>
                <_>
                  69 17 1 1 2.</_></rects>
              <tilted>1</tilted></feature>
            <threshold>-5.2666518604382873e-004</threshold>
            <left_val>0.7531645894050598</left_val>
            <right_val>-0.7434502840042114</right_val></_></_></trees>
      <stage_threshold>-0.1937803030014038</stage_threshold>
      <parent>0</parent>
      <next>-1</next></_>
    <_>
      <trees>
        <_>
          <_>
            <feature>
              <rects>
                <_>
                  33 17 12 2 -1.</_>
                <_>
                  37 17 4 2 3.</_></rects>
              <tilted>0</tilted></feature>
            <threshold>-4.9915611743927002e-003</threshold>
            <left_val>0.6083084940910339</left_val>
            <right_val>-0.8845136165618897</right_val></_></_>
        <_>
          <_>
            <feature>
              <rects>
                <_>
                  55 14 6 6 -1.</_>
                <_>
                  57 16 2 2 9.</_></rects>
              <tilted>0</tilted></feature>
            <threshold>-0.0189840290695429</threshold>
            <left_val>0.9040396213531494</left_val>
            <right_val>-0.6360852122306824</right_val></_></_></trees>
      <stage_threshold>-0.0277767200022936</stage_threshold>
      <parent>1</parent>
      <next>-1</next></_>
    <_>
      <trees>
        <_>
          <_>
            <feature>
              <rects>
                <_>
                  19 18 20 2 -1.</_>
                <_>
                  19 19 20 1 2.</_></rects>
              <tilted>0</tilted></feature>
            <threshold>1.2298390502110124e-003</threshold>
            <left_val>-0.8849964141845703</left_val>
            <right_val>0.6129518151283264</right_val></_></_>
        <_>
          <_>
            <feature>
              <rects>
                <_>
                  14 0 19 8 -1.</_>
                <_>
                  14 2 19 4 2.</_></rects>
              <tilted>0</tilted></feature>
            <threshold>-0.0113100800663233</threshold>
            <left_val>0.6801815032958984</left_val>
            <right_val>-0.7395914196968079</right_val></_></_></trees>
      <stage_threshold>-0.2048148959875107</stage_threshold>
      <parent>2</parent>
      <next>-1</next></_>
    <_>
      <trees>
        <_>
          <_>
            <feature>
              <rects>
                <_>
                  33 0 10 4 -1.</_>
                <_>
                  33 0 5 2 2.</_>
                <_>
                  38 2 5 2 2.</_></rects>
              <tilted>0</tilted></feature>
            <threshold>-3.2936169300228357e-003</threshold>
            <left_val>0.6335257291793823</left_val>
            <right_val>-0.7441594004631043</right_val></_></_>
        <_>
          <_>
            <feature>
              <rects>
                <_>
                  33 5 3 12 -1.</_>
                <_>
                  34 9 1 4 9.</_></rects>
              <tilted>0</tilted></feature>
            <threshold>-8.2485117018222809e-003</threshold>
            <left_val>0.6913489103317261</left_val>
            <right_val>-0.7594617009162903</right_val></_></_></trees>
      <stage_threshold>-0.1259360015392304</stage_threshold>
      <parent>3</parent>
      <next>-1</next></_>
    <_>
      <trees>
        <_>
          <_>
            <feature>
              <rects>
                <_>
                  1 10 15 2 -1.</_>
                <_>
                  6 10 5 2 3.</_></rects>
              <tilted>0</tilted></feature>
            <threshold>-6.1836489476263523e-003</threshold>
            <left_val>0.6574841737747192</left_val>
            <right_val>-0.7070109248161316</right_val></_></_>
        <_>
          <_>
            <feature>
              <rects>
                <_>
                  57 0 4 9 -1.</_>
                <_>
                  58 1 2 9 2.</_></rects>
              <tilted>1</tilted></feature>
            <threshold>-7.4426732026040554e-003</threshold>
            <left_val>0.8696448802947998</left_val>
            <right_val>-0.5912253856658936</right_val></_></_>
        <_>
          <_>
            <feature>
              <rects>
                <_>
                  8 10 66 9 -1.</_>
                <_>
                  30 13 22 3 9.</_></rects>
              <tilted>0</tilted></feature>
            <threshold>0.0574139691889286</threshold>
            <left_val>-0.9385265707969666</left_val>
            <right_val>0.5442895889282227</right_val></_></_></trees>
      <stage_threshold>-0.7539467811584473</stage_threshold>
      <parent>4</parent>
      <next>-1</next></_>
    <_>
      <trees>
        <_>
          <_>
            <feature>
              <rects>
                <_>
                  4 9 9 3 -1.</_>
                <_>
                  7 10 3 1 9.</_></rects>
              <tilted>0</tilted></feature>
            <threshold>-7.5180698186159134e-003</threshold>
            <left_val>0.7466471791267395</left_val>
            <right_val>-0.6309813261032105</right_val></_></_>
        <_>
          <_>
            <feature>
              <rects>
                <_>
                  42 0 8 5 -1.</_>
                <_>
                  44 0 4 5 2.</_></rects>
              <tilted>0</tilted></feature>
            <threshold>3.2555561047047377e-003</threshold>
            <left_val>-0.7104976177215576</left_val>
            <right_val>0.6831206083297730</right_val></_></_>
        <_>
          <_>
            <feature>
              <rects>
                <_>
                  68 0 4 1 -1.</_>
                <_>
                  68 0 2 1 2.</_></rects>
              <tilted>1</tilted></feature>
            <threshold>1.6166350105777383e-003</threshold>
            <left_val>-0.6626908779144287</left_val>
            <right_val>0.6591703891754150</right_val></_></_></trees>
      <stage_threshold>-0.6823086142539978</stage_threshold>
      <parent>5</parent>
      <next>-1</next></_>
    <_>
      <trees>
        <_>
          <_>
            <feature>
              <rects>
                <_>
                  33 0 3 12 -1.</_>
                <_>
                  34 4 1 4 9.</_></rects>
              <tilted>0</tilted></feature>
            <threshold>3.2230280339717865e-003</threshold>
            <left_val>-1.</left_val>
            <right_val>0.4120475053787231</right_val></_></_></trees>
      <stage_threshold>0.4120475053787231</stage_threshold>
      <parent>6</parent>
      <next>-1</next></_>
    <_>
      <trees>
        <_>
          <_>
            <feature>
              <rects>
                <_>
                  5 0 10 18 -1.</_>
                <_>
                  5 6 10 6 3.</_></rects>
              <tilted>0</tilted></feature>
            <threshold>-0.0118043702095747</threshold>
            <left_val>0.4469135105609894</left_val>
            <right_val>-0.9999998807907105</right_val></_></_></trees>
      <stage_threshold>0.4469135105609894</stage_threshold>
      <parent>7</parent>
      <next>-1</next></_>
    <_>
      <trees>
        <_>
          <_>
            <feature>
              <rects>
                <_>
                  1 2 14 15 -1.</_>
                <_>
                  1 7 14 5 3.</_></rects>
              <tilted>0</tilted></feature>
            <threshold>-0.0203407704830170</threshold>
            <left_val>-1.</left_val>
            <right_val>0.5260403752326965</right_val></_></_></trees>
      <stage_threshold>0.5260403752326965</stage_threshold>
      <parent>8</parent>
      <next>-1</next></_>
    <_>
      <trees>
        <_>
          <_>
            <feature>
              <rects>
                <_>
                  50 17 9 2 -1.</_>
                <_>
                  53 17 3 2 3.</_></rects>
              <tilted>0</tilted></feature>
            <threshold>2.5568879209458828e-003</threshold>
            <left_val>-0.6773946285247803</left_val>
            <right_val>0.6106256246566773</right_val></_></_>
        <_>
          <_>
            <feature>
              <rects>
                <_>
                  17 11 4 8 -1.</_>
                <_>
                  17 13 4 4 2.</_></rects>
              <tilted>0</tilted></feature>
            <threshold>5.1098708063364029e-003</threshold>
            <left_val>-0.5544654726982117</left_val>
            <right_val>0.7853057980537415</right_val></_></_>
        <_>
          <_>
            <feature>
              <rects>
                <_>
                  61 3 6 6 -1.</_>
                <_>
                  63 5 2 6 3.</_></rects>
              <tilted>1</tilted></feature>
            <threshold>-0.0162632204592228</threshold>
            <left_val>0.8762924075126648</left_val>
            <right_val>-0.5540500283241272</right_val></_></_></trees>
      <stage_threshold>-0.4461387991905212</stage_threshold>
      <parent>9</parent>
      <next>-1</next></_></stages></haar_carplate>
</opencv_storage>
